{"sizes":[13,6,3],"layers":[{"0":{},"1":{},"2":{},"3":{},"4":{},"5":{},"6":{},"7":{},"8":{},"9":{},"10":{},"11":{},"12":{}},{"0":{"bias":-0.8909733891487122,"weights":{"0":-0.39170345664024353,"1":-0.022820601239800453,"2":-0.05990050360560417,"3":-0.15297824144363403,"4":-0.06553425639867783,"5":-0.5781710147857666,"6":-0.09811870753765106,"7":-0.7736029624938965,"8":-0.030043546110391617,"9":0.12376073747873306,"10":-0.7205161452293396,"11":-0.5607012510299683,"12":0.1272648274898529}},"1":{"bias":-0.8909733891487122,"weights":{"0":-0.39170345664024353,"1":-0.022820601239800453,"2":-0.05990050360560417,"3":-0.15297824144363403,"4":-0.06553425639867783,"5":-0.5781710147857666,"6":-0.09811870753765106,"7":-0.7736029624938965,"8":-0.030043546110391617,"9":0.12376073747873306,"10":-0.7205161452293396,"11":-0.5607012510299683,"12":0.1272648274898529}},"2":{"bias":-0.8909733891487122,"weights":{"0":-0.39170345664024353,"1":-0.022820601239800453,"2":-0.05990050360560417,"3":-0.15297824144363403,"4":-0.06553425639867783,"5":-0.5781710147857666,"6":-0.09811870753765106,"7":-0.7736029624938965,"8":-0.030043546110391617,"9":0.12376073747873306,"10":-0.7205161452293396,"11":-0.5607012510299683,"12":0.1272648274898529}},"3":{"bias":-0.8909733891487122,"weights":{"0":-0.39170345664024353,"1":-0.022820601239800453,"2":-0.05990050360560417,"3":-0.15297824144363403,"4":-0.06553425639867783,"5":-0.5781710147857666,"6":-0.09811870753765106,"7":-0.7736029624938965,"8":-0.030043546110391617,"9":0.12376073747873306,"10":-0.7205161452293396,"11":-0.5607012510299683,"12":0.1272648274898529}},"4":{"bias":-0.8909733891487122,"weights":{"0":-0.39170345664024353,"1":-0.022820601239800453,"2":-0.05990050360560417,"3":-0.15297824144363403,"4":-0.06553425639867783,"5":-0.5781710147857666,"6":-0.09811870753765106,"7":-0.7736029624938965,"8":-0.030043546110391617,"9":0.12376073747873306,"10":-0.7205161452293396,"11":-0.5607012510299683,"12":0.1272648274898529}},"5":{"bias":-0.8909733891487122,"weights":{"0":-0.39170345664024353,"1":-0.022820601239800453,"2":-0.05990050360560417,"3":-0.15297824144363403,"4":-0.06553425639867783,"5":-0.5781710147857666,"6":-0.09811870753765106,"7":-0.7736029624938965,"8":-0.030043546110391617,"9":0.12376073747873306,"10":-0.7205161452293396,"11":-0.5607012510299683,"12":0.1272648274898529}}},{"0":{"bias":3.2220048904418945,"weights":{"0":-10.128376960754395,"1":-10.128376960754395,"2":-10.128376960754395,"3":-10.128376960754395,"4":-10.128376960754395,"5":-10.128376960754395}},"1":{"bias":-0.5663192272186279,"weights":{"0":-0.5677194595336914,"1":-0.5677194595336914,"2":-0.5677194595336914,"3":-0.5677194595336914,"4":-0.5677194595336914,"5":-0.5677194595336914}},"2":{"bias":13.429139137268066,"weights":{"0":3.7026515007019043,"1":3.7026515007019043,"2":3.7026515007019043,"3":3.7026515007019043,"4":3.7026515007019043,"5":3.7026515007019043}}}],"outputLookup":true,"inputLookup":true,"activation":"sigmoid","trainOpts":{"iterations":20000,"errorThresh":0.005,"log":true,"logPeriod":2,"learningRate":0.3,"momentum":0.1,"callbackPeriod":10,"beta1":0.9,"beta2":0.999,"epsilon":1e-8}}